       48.478053      -88.061702     -0.41497946
       48.477204      -88.062031     -0.39045191
       48.476356      -88.062361     -0.40680361
       48.475507      -88.062692     -0.40680361
       48.474658      -88.063021     -0.39045191
       48.473809      -88.063351     -0.38893175
       48.472961      -88.063681     -0.40528345
       48.472112      -88.064011     -0.38893175
       48.471264      -88.064340     -0.39710760
       48.470415      -88.064670     -0.39710760
       48.469567      -88.064999     -0.38893175
       48.468718      -88.065329     -0.39710760
       48.467870      -88.065659     -0.39710760
       48.467021      -88.065990     -0.38740778
       48.466172      -88.066320     -0.39558363
       48.465323      -88.066649     -0.39558363
       48.464475      -88.066978     -0.39558363
       48.463627      -88.067307     -0.39558363
       48.462779      -88.067637     -0.39558363
       48.461931      -88.067968     -0.39558363
       48.461082      -88.068297     -0.40375948
       48.460233      -88.068626     -0.38740778
       48.459384      -88.068956     -0.39558363
       48.458536      -88.069286     -0.38740778
       48.457688      -88.069615     -0.40223742
       48.456838      -88.069944     -0.39406157
       48.455990      -88.070274     -0.38588572
       48.455142      -88.070604     -0.39406157
       48.454293      -88.070934     -0.38588572
       48.453444      -88.071263     -0.41041327
       48.452595      -88.071592     -0.39406157
       48.451747      -88.071923     -0.39406157
       48.450898      -88.072253     -0.39406157
       48.450049      -88.072583     -0.38588572
       48.449200      -88.072913     -0.41078901
       48.448352      -88.073242     -0.41078901
       48.447504      -88.073571     -0.41896486
       48.446655      -88.073900     -0.41078901
       48.445807      -88.074229     -0.41078901
       48.444957      -88.074558     -0.41078901
       48.444108      -88.074887     -0.41078901
       48.443259      -88.075218     -0.40261316
       48.442411      -88.075548     -0.39443779
       48.441563      -88.075877     -0.40166998
       48.440715      -88.076206     -0.39349413
       48.439865      -88.076536     -0.40109491
       48.439016      -88.076866     -0.40927076
       48.438167      -88.077196     -0.40109491
       48.437318      -88.077525     -0.40927076
       48.436470      -88.077853     -0.40109491
       48.435621      -88.078183     -0.41744661
       48.434772      -88.078513     -0.40109491
       48.433924      -88.078842     -0.40927076
       48.433075      -88.079171     -0.40927076
       48.432226      -88.079500     -0.40109491
       48.431378      -88.079830     -0.38379860
       48.430529      -88.080160     -0.40014982
       48.429680      -88.080489     -0.39197397
       48.428832      -88.080817     -0.39197397
       48.427984      -88.081146     -0.39197397
       48.427135      -88.081476     -0.38379860
       48.426286      -88.081805     -0.40014982
       48.425437      -88.082136     -0.40014982
       48.424588      -88.082465     -0.40014982
       48.423740      -88.082794     -0.39197397
       48.422891      -88.083123     -0.40014982
       48.422043      -88.083452     -0.37674856
       48.421194      -88.083781     -0.37674856
       48.420345      -88.084110     -0.37674856
       48.419496      -88.084438     -0.36039734
       48.418647      -88.084768     -0.38492441
       48.417798      -88.085098     -0.36857319
       48.416949      -88.085427     -0.37674856
       48.416100      -88.085756     -0.39310026
       48.415253      -88.086086     -0.38492441
       48.414404      -88.086415     -0.38492441
       48.413556      -88.086744     -0.38492441
       48.412707      -88.087073     -0.37979746
       48.411859      -88.087402     -0.38797331
       48.411010      -88.087731     -0.38797331
       48.410160      -88.088060     -0.37979746
       48.409312      -88.088389     -0.39614916
       48.408463      -88.088718     -0.38949537
       48.407615      -88.089046     -0.37314415
       48.406766      -88.089375     -0.37314415
       48.405917      -88.089704     -0.39767122
       48.405069      -88.090032     -0.38131952
       48.404220      -88.090361     -0.39406157
       48.403371      -88.090690     -0.40223742
       48.402523      -88.091020     -0.37771034
       48.401674      -88.091350     -0.38588572
       48.400825      -88.091679     -0.38588572
       48.399977      -88.092008     -0.39406157
       48.399128      -88.092337     -0.38588572
       48.398279      -88.092666     -0.38588572
       48.397431      -88.092995     -0.37771034
       48.396582      -88.093324     -0.39406157
       48.395732      -88.093654     -0.38588572
       48.394884      -88.093983     -0.39197397
       48.394036      -88.094311     -0.38379860
       48.393186      -88.094639     -0.39197397
       48.392337      -88.094967     -0.38379860
       48.391489      -88.095296     -0.40014982
       48.390640      -88.095625     -0.40014982
       48.389791      -88.095954     -0.37562275
       48.388942      -88.096283     -0.38379860
       48.388094      -88.096613     -0.38379860
       48.387246      -88.096942     -0.39197397
       48.386396      -88.097271     -0.39501333
       48.385548      -88.097599     -0.39501333
       48.384700      -88.097928     -0.39501333
       48.383851      -88.098257     -0.39501333
       48.383002      -88.098587     -0.39501333
       48.382153      -88.098916     -0.39501333
       48.381305      -88.099244     -0.38683796
       48.380456      -88.099571     -0.39501333
       48.379608      -88.099899     -0.40318918
       48.378759      -88.100228     -0.40318918
       48.377910      -88.100558     -0.39501333
       48.377061      -88.100887     -0.38683796
       48.376213      -88.101215     -0.40528345
       48.375364      -88.101544     -0.39710760
       48.374515      -88.101873     -0.40528345
       48.373667      -88.102202     -0.38893175
       48.372818      -88.102531     -0.38893175
       48.371970      -88.102858     -0.39710760
       48.371121      -88.103188     -0.39710760
       48.370272      -88.103517     -0.38893175
       48.369424      -88.103845     -0.38893175
       48.368576      -88.104173     -0.38893175
       48.367727      -88.104502     -0.41230726
       48.366879      -88.104831     -0.41230726
       48.366030      -88.105160     -0.41230726
       48.365181      -88.105488     -0.41230726
       48.364332      -88.105816     -0.41230726
       48.363483      -88.106144     -0.42048311
       48.362635      -88.106473     -0.41230726
       48.361786      -88.106802     -0.41230726
       48.360938      -88.107130     -0.41230726
       48.360089      -88.107458     -0.40413141
       48.359241      -88.107786     -0.41078901
       48.358392      -88.108115     -0.40261316
       48.357544      -88.108443     -0.40261316
       48.356694      -88.108772     -0.40261316
       48.355845      -88.109101     -0.40261316
       48.354997      -88.109429     -0.41078901
       48.354148      -88.109757     -0.41078901
       48.353299      -88.110086     -0.41078901
       48.352451      -88.110414     -0.41078901
       48.351602      -88.110743     -0.40261316
       48.350754      -88.111071     -0.40261316
       48.349905      -88.111400     -0.40014982
       48.349056      -88.111729     -0.40014982
       48.348208      -88.112058     -0.40014982
       48.347358      -88.112385     -0.40014982
       48.346509      -88.112713     -0.40014982
       48.345661      -88.113041     -0.40014982
       48.344812      -88.113369     -0.39197397
       48.343963      -88.113697     -0.40014982
       48.343114      -88.114025     -0.41193533
       48.342266      -88.114353     -0.39558363
       48.341417      -88.114681     -0.39862776
       48.340568      -88.115009     -0.39862776
       48.339719      -88.115336     -0.40680361
       48.338870      -88.115665     -0.39045191
       48.338022      -88.115993     -0.39862776
       48.337173      -88.116322     -0.39862776
       48.336325      -88.116650     -0.39045191
       48.335476      -88.116978     -0.40680361
       48.334627      -88.117307     -0.40680361
       48.333778      -88.117635     -0.39862776
       48.332929      -88.117964     -0.39045191
       48.332080      -88.118292     -0.39710760
       48.331231      -88.118620     -0.40528345
       48.330383      -88.118948     -0.39710760
       48.329533      -88.119275     -0.39710760
       48.328684      -88.119604     -0.40528345
       48.327835      -88.119933     -0.38893175
       48.326986      -88.120261     -0.38893175
       48.326138      -88.120589     -0.40528345
       48.325289      -88.120917     -0.38893175
       48.324441      -88.121245     -0.39710760
       48.323592      -88.121573     -0.38893175
       48.322743      -88.121901     -0.38740778
       48.321895      -88.122229     -0.38740778
       48.321046      -88.122557     -0.38740778
       48.320198      -88.122885     -0.39558363
       48.319349      -88.123213     -0.38740778
       48.318499      -88.123540     -0.38740778
       48.317651      -88.123868     -0.39558363
       48.316802      -88.124196     -0.39558363
       48.315954      -88.124524     -0.38740778
       48.315105      -88.124852     -0.39558363
       48.314256      -88.125180     -0.38284063
       48.313408      -88.125508     -0.38284063
       48.312558      -88.125838     -0.39101648
       48.311709      -88.126164     -0.39101648
       48.310860      -88.126492     -0.37618923
       48.310012      -88.126820     -0.38436460
       48.309163      -88.127148     -0.38436460
       48.308314      -88.127476     -0.38436460
       48.307466      -88.127804     -0.38436460
       48.306617      -88.128132     -0.38436460
       48.305769      -88.128459     -0.38436460
       48.304920      -88.128786     -0.38340235
       48.304071      -88.129114     -0.37522650
       48.303223      -88.129440     -0.37522650
       48.302374      -88.129768     -0.38340235
       48.301525      -88.130096     -0.37522650
       48.300677      -88.130424     -0.37522650
       48.299828      -88.130752     -0.37522650
       48.298980      -88.131079     -0.36705112
       48.298131      -88.131407     -0.38340235
       48.297282      -88.131736     -0.38340235
       48.296432      -88.132064     -0.37730455
       48.295583      -88.132392     -0.37730455
       48.294734      -88.132720     -0.37730455
       48.293885      -88.133048     -0.36912870
       48.293037      -88.133375     -0.37730455
       48.292188      -88.133703     -0.36912870
       48.291340      -88.134029     -0.38548040
       48.290491      -88.134356     -0.38548040
       48.289642      -88.134684     -0.36912870
       48.288793      -88.135013     -0.37730455
       48.287944      -88.135340     -0.36912870
       48.287095      -88.135668     -0.36607504
       48.286247      -88.135996     -0.37425089
       48.285398      -88.136324     -0.37425089
       48.284549      -88.136650     -0.37425089
       48.283700      -88.136977     -0.38242674
       48.282852      -88.137305     -0.36607504
       48.282003      -88.137633     -0.36607504
       48.281154      -88.137960     -0.37425089
       48.280304      -88.138288     -0.37425089
       48.279455      -88.138616     -0.37425089
       48.278607      -88.138943     -0.37425089
       48.277758      -88.139270     -0.40809822
       48.276909      -88.139597     -0.42444944
       48.276060      -88.139925     -0.43262529
       48.275211      -88.140252     -0.43262529
       48.274363      -88.140580     -0.41627359
       48.273514      -88.140908     -0.43262529
       48.272665      -88.141235     -0.42444944
       48.271817      -88.141563     -0.42444944
       48.270967      -88.141892     -0.42444944
       48.270118      -88.142218     -0.42444944
       48.269269      -88.142546     -0.41744661
       48.268420      -88.142873     -0.41744661
       48.267571      -88.143200     -0.40927076
       48.266722      -88.143528     -0.40927076
       48.265873      -88.143855     -0.40927076
       48.265024      -88.144181     -0.40927076
       48.264176      -88.144509     -0.40109491
       48.263327      -88.144836     -0.40927076
       48.262479      -88.145163     -0.40927076
       48.261630      -88.145490     -0.40927076
       48.260781      -88.145817     -0.42562246
       48.259932      -88.146144     -0.41193533
       48.259083      -88.146472     -0.41193533
       48.258234      -88.146799     -0.41193533
       48.257386      -88.147127     -0.39558363
       48.256538      -88.147455     -0.39558363
       48.255690      -88.147782     -0.40375948
       48.254840      -88.148109     -0.38740778
       48.253991      -88.148435     -0.39558363
       48.253142      -88.148762     -0.40375948
       48.252293      -88.149090     -0.40375948
       48.251444      -88.149417     -0.40071630
       48.250596      -88.149743     -0.40889215
       48.249747      -88.150071     -0.40071630
       48.248899      -88.150399     -0.40889215
       48.248050      -88.150727     -0.39254045
       48.247201      -88.151054     -0.38436460
       48.246351      -88.151380     -0.40071630
       48.245502      -88.151707     -0.39254045
       48.244654      -88.152035     -0.40984583
       48.243805      -88.152362     -0.41802168
       48.242957      -88.152689     -0.40984583
       48.242108      -88.153017     -0.39558363
       48.241261      -88.153345     -0.40375948
       48.240412      -88.153670     -0.39558363
       48.239563      -88.153997     -0.40375948
       48.238714      -88.154325     -0.40375948
       48.237865      -88.154652     -0.39558363
       48.237016      -88.154979     -0.39558363
       48.236167      -88.155305     -0.39558363
       48.235318      -88.155632     -0.40375948
       48.234470      -88.155959     -0.40375948
       48.233621      -88.156287     -0.40375948
       48.232772      -88.156613     -0.37577868
       48.231923      -88.156940     -0.39213037
       48.231075      -88.157266     -0.38395452
       48.230226      -88.157593     -0.38395452
       48.229377      -88.157921     -0.37577868
       48.228528      -88.158250     -0.37577868
       48.227679      -88.158576     -0.38395452
       48.226830      -88.158901     -0.38395452
       48.225982      -88.159228     -0.38395452
       48.225133      -88.159555     -0.37577868
       48.224284      -88.159882     -0.37882853
       48.223436      -88.160209     -0.37065268
       48.222586      -88.160535     -0.37882853
       48.221737      -88.160862     -0.37882853
       48.220889      -88.161189     -0.38700438
       48.220041      -88.161517     -0.38700438
       48.219192      -88.161843     -0.37882853
       48.218343      -88.162169     -0.37882853
       48.217494      -88.162497     -0.37882853
       48.216645      -88.162823     -0.37882853
       48.215795      -88.163150     -0.38700438
       48.214946      -88.163478     -0.38644934
       48.214097      -88.163805     -0.39462519
       48.213249      -88.164131     -0.39462519
       48.212400      -88.164458     -0.41041327
       48.211550      -88.164785     -0.41041327
       48.210701      -88.165111     -0.41858912
       48.209852      -88.165437     -0.40223742
       48.209003      -88.165764     -0.40223742
       48.208154      -88.166091     -0.40223742
       48.207306      -88.166418     -0.41041327
       48.206457      -88.166745     -0.40014982
       48.205608      -88.167071     -0.40014982
       48.204760      -88.167398     -0.40832567
       48.203911      -88.167725     -0.41650152
       48.203062      -88.168052     -0.40014982
       48.202212      -88.168379     -0.40014982
       48.201363      -88.168706     -0.40832567
       48.200515      -88.169032     -0.40832567
       48.199666      -88.169358     -0.40014982
       48.198818      -88.169685     -0.40014982
       48.197969      -88.170012     -0.40014982
       48.197120      -88.170338     -0.39862776
       48.196271      -88.170664     -0.39862776
       48.195422      -88.170991     -0.39862776
       48.194573      -88.171317     -0.39862776
       48.193725      -88.171644     -0.39862776
       48.192875      -88.171971     -0.39862776
       48.192026      -88.172297     -0.39862776
       48.191178      -88.172623     -0.39862776
       48.190330      -88.172951     -0.39045191
       48.189481      -88.173277     -0.40680361
       48.188632      -88.173603     -0.39862776
       48.187783      -88.173930     -0.38187742
       48.186934      -88.174256     -0.37370157
       48.186085      -88.174583     -0.37370157
       48.185237      -88.174909     -0.38187742
       48.184388      -88.175235     -0.39005327
       48.183539      -88.175561     -0.38187742
       48.182690      -88.175888     -0.38187742
       48.181842      -88.176216     -0.39005327
       48.180992      -88.176542     -0.39822912
       48.180144      -88.176868     -0.38187742
       48.179295      -88.177194     -0.38949537
       48.178446      -88.177521     -0.39767122
       48.177597      -88.177848     -0.38949537
       48.176749      -88.178174     -0.40584707
       48.175901      -88.178500     -0.39767122
       48.175051      -88.178825     -0.40584707
       48.174202      -88.179151     -0.40584707
       48.173354      -88.179478     -0.41402292
       48.172504      -88.179805     -0.41402292
       48.171656      -88.180131     -0.39767122
       48.170807      -88.180457     -0.42219877
       48.169958      -88.180785     -0.39060259
       48.169109      -88.181112     -0.38242674
       48.168260      -88.181438     -0.39060259
       48.167411      -88.181764     -0.38242674
       48.166562      -88.182090     -0.38242674
       48.165713      -88.182417     -0.39060259
       48.164864      -88.182743     -0.38242674
       48.164016      -88.183070     -0.39060259
       48.163166      -88.183396     -0.38242674
       48.162317      -88.183723     -0.39060259
       48.161467      -88.184050     -0.35951376
       48.160616      -88.184376     -0.35951376
       48.159767      -88.184703     -0.37586546
       48.158919      -88.185029     -0.35951376
       48.158070      -88.185355     -0.36768961
       48.157220      -88.185682     -0.37586546
       48.156371      -88.186008     -0.37586546
       48.155522      -88.186335     -0.38404131
       48.154674      -88.186661     -0.38404131
       48.153825      -88.186988     -0.38404131
       48.152976      -88.187315     -0.38404131
       48.152127      -88.187642     -0.36821222
       48.151278      -88.187967     -0.38456392
       48.150429      -88.188293     -0.37638807
       48.149580      -88.188620     -0.38456392
       48.148733      -88.188947     -0.37638807
       48.147884      -88.189273     -0.38456392
       48.147036      -88.189600     -0.38456392
       48.146187      -88.189926     -0.39374495
       48.145338      -88.190251     -0.39374495
       48.144488      -88.190577     -0.38556910
       48.143639      -88.190904     -0.40192080
       48.142791      -88.191231     -0.40803766
       48.141942      -88.191558     -0.40803766
       48.141094      -88.191884     -0.39168596
       48.140245      -88.192209     -0.41621304
       48.139396      -88.192537     -0.41621304
       48.138547      -88.192863     -0.40803766
       48.137699      -88.193188     -0.40803766
       48.136850      -88.193514     -0.39986181
       48.136002      -88.193841     -0.39168596
       48.135153      -88.194168     -0.39986181
       48.134304      -88.194493     -0.38609552
       48.133456      -88.194821     -0.37791967
       48.132608      -88.195147     -0.38609552
       48.131759      -88.195474     -0.37791967
       48.130911      -88.195799     -0.37791967
       48.130062      -88.196126     -0.38609552
       48.129213      -88.196452     -0.38609552
       48.128365      -88.196778     -0.38609552
       48.127516      -88.197104     -0.39427137
       48.126667      -88.197430     -0.38609552
       48.125818      -88.197757     -0.39427137
       48.124970      -88.198083     -0.38508081
       48.124121      -88.198410     -0.38508081
       48.123272      -88.198736     -0.38508081
       48.122423      -88.199062     -0.37690496
       48.121575      -88.199388     -0.38508081
       48.120726      -88.199714     -0.38508081
       48.119877      -88.200040     -0.37690496
       48.119029      -88.200367     -0.38508081
       48.118181      -88.200693     -0.37690496
       48.117332      -88.201019     -0.37690496
       48.116483      -88.201346     -0.36872911
       48.115635      -88.201672     -0.39325619
       48.114785      -88.201998     -0.39325619
       48.113935      -88.202325     -0.38508081
       48.113086      -88.202652     -0.38967943
       48.112238      -88.202978     -0.38150358
       48.111390      -88.203304     -0.38150358
       48.110540      -88.203630     -0.36515188
       48.109692      -88.203955     -0.38150358
       48.108843      -88.204281     -0.37332773
       48.107994      -88.204608     -0.37332773
       48.107145      -88.204934     -0.38098001
       48.106296      -88.205260     -0.39733171
       48.105447      -88.205586     -0.37280416
       48.104599      -88.205912     -0.37280416
       48.103749      -88.206239     -0.39733171
       48.102900      -88.206566     -0.38915586
       48.102052      -88.206891     -0.38098001
       48.101203      -88.207217     -0.38098001
       48.100355      -88.207544     -0.38098001
       48.099506      -88.207870     -0.38098001
       48.098656      -88.208196     -0.38098001
       48.097807      -88.208522     -0.38197947
       48.096959      -88.208848     -0.38197947
       48.096109      -88.209175     -0.39015532
       48.095261      -88.209500     -0.39015532
       48.094412      -88.209826     -0.39015532
       48.093563      -88.210152     -0.39015532
       48.092715      -88.210479     -0.39833117
       48.091866      -88.210805     -0.39833117
       48.091017      -88.211130     -0.39833117
       48.090167      -88.211456     -0.39015532
       48.089318      -88.211782     -0.37791967
       48.088470      -88.212108     -0.37791967
       48.087621      -88.212433     -0.38609552
       48.086772      -88.212759     -0.36974382
       48.085924      -88.213085     -0.36974382
       48.085075      -88.213411     -0.37791967
       48.084227      -88.213737     -0.37791967
       48.083379      -88.214063     -0.36974382
       48.082530      -88.214388     -0.36974382
       48.081681      -88.214714     -0.37791967
       48.080832      -88.215040     -0.37791967
       48.079983      -88.215366     -0.37945032
       48.079135      -88.215692     -0.35492277
       48.078287      -88.216019     -0.37127447
       48.077437      -88.216343     -0.37945032
       48.076589      -88.216669     -0.37127447
       48.075741      -88.216995     -0.38762617
       48.074891      -88.217322     -0.37945032
       48.074043      -88.217647     -0.37127447
       48.073194      -88.217973     -0.37127447
       48.072345      -88.218298     -0.37127447
       48.071496      -88.218625     -0.39986181
       48.070647      -88.218950     -0.39168596
       48.069799      -88.219276     -0.39986181
       48.068951      -88.219602     -0.39986181
       48.068102      -88.219928     -0.40803766
       48.067253      -88.220253     -0.38351011
       48.066404      -88.220578     -0.38351011
       48.065554      -88.220904     -0.39986181
       48.064705      -88.221229     -0.39168596
       48.063856      -88.221555     -0.38351011
       48.063007      -88.221881     -0.38351011
       48.062159      -88.222206     -0.37892389
       48.061310      -88.222532     -0.38709974
       48.060461      -88.222857     -0.37892389
       48.059612      -88.223182     -0.38709974
       48.058763      -88.223507     -0.37892389
       48.057914      -88.223832     -0.37892389
       48.057065      -88.224159     -0.38709974
       48.056216      -88.224484     -0.38709974
       48.055367      -88.224810     -0.38709974
       48.054518      -88.225135     -0.38709974
       48.053669      -88.225461     -0.37892389
       48.052820      -88.225786     -0.36410189
       48.051971      -88.226111     -0.36410189
       48.051123      -88.226436     -0.38045359
       48.050274      -88.226762     -0.37227774
       48.049425      -88.227087     -0.37227774
       48.048576      -88.227412     -0.38045359
       48.047727      -88.227738     -0.38045359
       48.046878      -88.228062     -0.38144541
       48.046029      -88.228387     -0.38144541
       48.045179      -88.228713     -0.37326956
       48.044331      -88.229039     -0.39310026
       48.043482      -88.229364     -0.39310026
       48.042633      -88.229690     -0.39310026
       48.041785      -88.230017     -0.40127611
       48.040936      -88.230342     -0.40127611
       48.040087      -88.230666     -0.40127611
       48.039238      -88.230991     -0.40127611
       48.038389      -88.231316     -0.39310026
       48.037540      -88.231641     -0.38492441
       48.036692      -88.231966     -0.40945196
       48.035843      -88.232292     -0.39310026
       48.034994      -88.232617     -0.39462519
       48.034145      -88.232941     -0.39462519
       48.033296      -88.233265     -0.40280104
       48.032447      -88.233591     -0.41097689
       48.031598      -88.233917     -0.39462519
       48.030750      -88.234242     -0.39462519
       48.029901      -88.234568     -0.40280104
       48.029052      -88.234892     -0.38644934
       48.028203      -88.235217     -0.39462519
       48.027355      -88.235541     -0.37827349
       48.026506      -88.235866     -0.38035345
       48.025657      -88.236191     -0.38035345
       48.024808      -88.236516     -0.38852930
       48.023961      -88.236843     -0.36400223
       48.023111      -88.237168     -0.38035345
       48.022261      -88.237493     -0.36400223
       48.021413      -88.237818     -0.38035345
       48.020564      -88.238143     -0.38035345
       48.019715      -88.238468     -0.38035345
       48.018867      -88.238792     -0.38035345
       48.018019      -88.239116     -0.37217760
       48.017170      -88.239441     -0.37217760
       48.016321      -88.239766     -0.38035345
       48.015471      -88.240091     -0.38035345
       48.014622      -88.240416     -0.38035345
       48.013773      -88.240740     -0.37370157
       48.012925      -88.241065     -0.36552620
       48.012076      -88.241390     -0.37370157
       48.011227      -88.241714     -0.38187742
       48.010378      -88.242039     -0.37370157
       48.009530      -88.242364     -0.37370157
       48.008681      -88.242689     -0.36552620
       48.007832      -88.243014     -0.38227654
       48.006983      -88.243338     -0.39045191
       48.006134      -88.243663     -0.38227654
       48.005285      -88.243988     -0.38227654
       48.004436      -88.244313     -0.37410069
       48.003587      -88.244637     -0.36592484
       48.002738      -88.244963     -0.37410069
       48.001889      -88.245288     -0.37410069
       48.001039      -88.245613     -0.38227654
       48.000191      -88.245936     -0.37410069
       47.999342      -88.246260     -0.33239079
       47.998492      -88.246585     -0.34874249
       47.997643      -88.246910     -0.34056664
       47.996795      -88.247235     -0.34056664
       47.995946      -88.247559     -0.34874249
       47.995096      -88.247883     -0.34056664
       47.994247      -88.248209     -0.34056664
       47.993398      -88.248534     -0.34056664
       47.992549      -88.248858     -0.34056664
       47.991700      -88.249182     -0.34056664
       47.990851      -88.249507     -0.33239079
       47.990002      -88.249831     -0.34667587
       47.989153      -88.250156     -0.34667587
       47.988305      -88.250481     -0.34667587
       47.987456      -88.250805     -0.33850002
       47.986607      -88.251129     -0.33032417
       47.985757      -88.251453     -0.33850002
       47.984909      -88.251778     -0.33850002
       47.984060      -88.252103     -0.35485172
       47.983211      -88.252427     -0.34667587
       47.982361      -88.252751     -0.34667587
       47.981512      -88.253076     -0.35277748
       47.980664      -88.253400     -0.34460163
       47.979815      -88.253725     -0.33642578
       47.978966      -88.254049     -0.34460163
       47.978117      -88.254373     -0.34460163
       47.977268      -88.254698     -0.34460163
       47.976418      -88.255022     -0.34460163
       47.975569      -88.255346     -0.33642578
       47.974720      -88.255671     -0.35277748
       47.973870      -88.255996     -0.32824993
       47.973022      -88.256320     -0.34460163
       47.972173      -88.256645     -0.33947468
       47.971324      -88.256969     -0.34765053
       47.970474      -88.257293     -0.34765053
       47.969625      -88.257617     -0.33129883
       47.968776      -88.257942     -0.33947468
       47.967927      -88.258266     -0.33129883
       47.967078      -88.258591     -0.33129883
       47.966230      -88.258915     -0.33947468
       47.965381      -88.259239     -0.33129883
       47.964532      -88.259563     -0.33129883
       47.963683      -88.259887     -0.32312298
       47.962834      -88.260211     -0.34557056
       47.961985      -88.260536     -0.33739471
       47.961136      -88.260860     -0.33739471
       47.960287      -88.261185     -0.33739471
       47.959438      -88.261509     -0.33739471
       47.958589      -88.261833     -0.33739471
       47.957741      -88.262157     -0.32921886
       47.956892      -88.262482     -0.32921886
       47.956043      -88.262807     -0.33739471
       47.955194      -88.263130     -0.34557056
       47.954344      -88.263455     -0.34861660
       47.953495      -88.263780     -0.34044075
       47.952646      -88.264104     -0.34044075
       47.951797      -88.264428     -0.34044075
       47.950948      -88.264752     -0.34044075
       47.950100      -88.265077     -0.34861660
       47.949251      -88.265402     -0.33226490
       47.948402      -88.265725     -0.34861660
       47.947552      -88.266049     -0.33586979
       47.946703      -88.266372     -0.33586979
       47.945854      -88.266696     -0.34404564
       47.945005      -88.267021     -0.33378601
       47.944157      -88.267346     -0.34196186
       47.943308      -88.267671     -0.33378601
       47.942459      -88.267996     -0.34196186
       47.941610      -88.268321     -0.34196186
       47.940761      -88.268645     -0.34196186
       47.939912      -88.268968     -0.34196186
       47.939062      -88.269291     -0.33378601
       47.938214      -88.269616     -0.34196186
       47.937365      -88.269940     -0.33378601
       47.936516      -88.270264     -0.34500694
       47.935667      -88.270589     -0.36135864
       47.934817      -88.270913     -0.34500694
       47.933968      -88.271237     -0.34500694
       47.933119      -88.271562     -0.33683109
       47.932271      -88.271887     -0.33683109
       47.931422      -88.272210     -0.34500694
       47.930573      -88.272534     -0.34500694
       47.929724      -88.272858     -0.34500694
       47.928874      -88.273183     -0.33683109
       47.928025      -88.273507     -0.35318279
       47.927176      -88.273831     -0.35261536
       47.926327      -88.274154     -0.35261536
       47.925477      -88.274479     -0.35261536
       47.924629      -88.274804     -0.33626366
       47.923780      -88.275129     -0.35261536
       47.922932      -88.275454     -0.34443951
       47.922082      -88.275777     -0.34443951
       47.921233      -88.276101     -0.34443951
       47.920384      -88.276424     -0.34443951
       47.919535      -88.276749     -0.35261536
       47.918686      -88.277074     -0.33626366
       47.917837      -88.277398     -0.35051823
       47.916987      -88.277721     -0.35869408
       47.916138      -88.278046     -0.35869408
       47.915289      -88.278370     -0.35051823
       47.914440      -88.278694     -0.35051823
       47.913591      -88.279018     -0.35869408
       47.912742      -88.279342     -0.35051823
       47.911894      -88.279667     -0.35051823
       47.911045      -88.279991     -0.35051823
       47.910196      -88.280314     -0.34234238
       47.909346      -88.280638     -0.34348583
       47.908496      -88.280963     -0.33530998
       47.907647      -88.281288     -0.32713413
       47.906799      -88.281611     -0.33530998
       47.905950      -88.281935     -0.32713413
       47.905102      -88.282259     -0.33530998
       47.904254      -88.282583     -0.33530998
       47.903404      -88.282907     -0.31895828
       47.902554      -88.283232     -0.32713413
       47.901706      -88.283555     -0.33530998
       47.900857      -88.283879     -0.32713413
       47.900007      -88.284204     -0.33778286
       47.899158      -88.284528     -0.34595871
       47.898309      -88.284852     -0.34595871
       47.897461      -88.285175     -0.33778286
       47.896612      -88.285501     -0.33778286
       47.895763      -88.285824     -0.34595871
       47.894914      -88.286148     -0.33778286
       47.894065      -88.286472     -0.34595871
       47.893216      -88.286796     -0.33778286
       47.892368      -88.287121     -0.33778286
       47.891519      -88.287446     -0.35145950
       47.890670      -88.287769     -0.35145950
       47.889822      -88.288092     -0.35145950
       47.888972      -88.288415     -0.35963535
       47.888122      -88.288740     -0.35963535
       47.887273      -88.289064     -0.34328365
       47.886425      -88.289387     -0.36781120
       47.885576      -88.289711     -0.35963535
       47.884728      -88.290036     -0.35963535
       47.883878      -88.290359     -0.35145950
       47.883029      -88.290683     -0.35145950
       47.882180      -88.291007     -0.33930492
       47.881331      -88.291332     -0.34595871
       47.880482      -88.291655     -0.33778286
       47.879633      -88.291979     -0.33778286
       47.878784      -88.292303     -0.32960701
       47.877936      -88.292625     -0.33778286
       47.877087      -88.292949     -0.33778286
       47.876238      -88.293273     -0.33778286
       47.875389      -88.293597     -0.33778286
       47.874540      -88.293920     -0.33778286
       47.873691      -88.294244     -0.33778286
       47.872841      -88.294568     -0.34538269
       47.871992      -88.294892     -0.34538269
       47.871143      -88.295215     -0.35355854
       47.870294      -88.295539     -0.34538269
       47.869445      -88.295863     -0.34538269
       47.868596      -88.296187     -0.35355854
       47.867747      -88.296511     -0.33720684
       47.866897      -88.296835     -0.33720684
       47.866048      -88.297159     -0.33720684
       47.865199      -88.297482     -0.34538269
       47.864349      -88.297805     -0.34631729
       47.863500      -88.298129     -0.33814192
       47.862651      -88.298452     -0.34631729
       47.861802      -88.298775     -0.35449314
       47.860953      -88.299100     -0.34631729
       47.860104      -88.299423     -0.35449314
       47.859255      -88.299747     -0.34631729
       47.858405      -88.300070     -0.34631729
       47.857556      -88.300396     -0.34631729
       47.856708      -88.300720     -0.34631729
       47.855858      -88.301043     -0.34631729
       47.855009      -88.301365     -0.34538269
       47.854160      -88.301689     -0.33720684
       47.853311      -88.302013     -0.33720684
       47.852461      -88.302337     -0.33720684
       47.851613      -88.302660     -0.33720684
       47.850762      -88.302984     -0.33720684
       47.849913      -88.303307     -0.34538269
       47.849064      -88.303631     -0.33720684
       47.848215      -88.303955     -0.31173658
       47.847367      -88.304278     -0.32808781
       47.846517      -88.304600     -0.31895828
       47.845668      -88.304924     -0.31895828
       47.844819      -88.305248     -0.32713413
       47.843969      -88.305572     -0.30260706
       47.843119      -88.305894     -0.31895828
       47.842270      -88.306218     -0.31895828
       47.841421      -88.306542     -0.31895828
       47.840572      -88.306865     -0.31078291
       47.839723      -88.307188     -0.31895828
       47.838873      -88.307511     -0.31895828
       47.838024      -88.307834     -0.31078291
       47.837176      -88.308156     -0.32047939
       47.836327      -88.308480     -0.31230402
       47.835478      -88.308803     -0.32047939
       47.834629      -88.309127     -0.31230402
       47.833780      -88.309450     -0.31230402
       47.832931      -88.309773     -0.32047939
       47.832082      -88.310096     -0.31230402
       47.831233      -88.310419     -0.32047939
       47.830383      -88.310741     -0.31230402
       47.829534      -88.311065     -0.31230402
       47.828684      -88.311388     -0.32047939
       47.827835      -88.311712     -0.34176159
       47.826987      -88.312035     -0.34176159
       47.826138      -88.312358     -0.34176159
       47.825289      -88.312681     -0.34176159
       47.824439      -88.313003     -0.34176159
       47.823590      -88.313326     -0.33358622
       47.822742      -88.313650     -0.34993744
       47.821893      -88.313973     -0.33358622
       47.821043      -88.314295     -0.34176159
       47.820193      -88.314617     -0.34993744
       47.819344      -88.314940     -0.33264923
       47.818495      -88.315263     -0.34082508
       47.817646      -88.315586     -0.33264923
       47.816797      -88.315911     -0.33264923
       47.815949      -88.316234     -0.33264923
       47.815099      -88.316557     -0.32599115
       47.814250      -88.316879     -0.34234238
       47.813401      -88.317202     -0.32599115
       47.812552      -88.317525     -0.33416653
       47.811703      -88.317848     -0.33416653
       47.810854      -88.318169     -0.33416653
       47.810004      -88.318492     -0.33264923
       47.809156      -88.318815     -0.32447386
       47.808307      -88.319139     -0.33264923
       47.807457      -88.319462     -0.33264923
       47.806608      -88.319785     -0.33264923
       47.805760      -88.320108     -0.32447386
       47.804911      -88.320430     -0.33264923
       47.804061      -88.320752     -0.33264923
       47.803212      -88.321075     -0.34082508
       47.802363      -88.321398     -0.34082508
       47.801513      -88.321721     -0.33416653
       47.800665      -88.322042     -0.33416653
       47.799815      -88.322365     -0.33416653
       47.798966      -88.322688     -0.33416653
       47.798118      -88.323011     -0.33416653
       47.797268      -88.323334     -0.34234238
       47.796419      -88.323656     -0.33416653
       47.795570      -88.323979     -0.34234238
       47.794720      -88.324302     -0.33416653
       47.793871      -88.324625     -0.33416653
       47.793022      -88.324947     -0.33416653
       47.792174      -88.325269     -0.33720684
       47.791325      -88.325592     -0.33720684
       47.790475      -88.325915     -0.33720684
       47.789626      -88.326237     -0.34538269
       47.788777      -88.326560     -0.33720684
       47.787928      -88.326881     -0.32903147
       47.787079      -88.327203     -0.33720684
       47.786229      -88.327527     -0.32085562
       47.785380      -88.327850     -0.33720684
       47.784531      -88.328172     -0.32903147
       47.783681      -88.328493     -0.33720684
       47.782833      -88.328816     -0.34783459
       47.781983      -88.329138     -0.34783459
       47.781134      -88.329460     -0.35178614
       47.780285      -88.329782     -0.35178614
       47.779436      -88.330106     -0.36813736
       47.778586      -88.330429     -0.35996151
       47.777737      -88.330751     -0.35996151
       47.776888      -88.331074     -0.35996151
       47.776039      -88.331395     -0.35996151
       47.775190      -88.331716     -0.35996151
       47.774340      -88.332039     -0.36904907
       47.773492      -88.332362     -0.36904907
       47.772643      -88.332685     -0.36904907
       47.771793      -88.333006     -0.36904907
       47.770944      -88.333329     -0.36904907
       47.770095      -88.333652     -0.36904907
       47.769246      -88.333974     -0.36904907
       47.768397      -88.334296     -0.36904907
       47.767548      -88.334618     -0.36087370
       47.766699      -88.334940     -0.36087370
       47.765850      -88.335262     -0.36087370
       47.765000      -88.335586     -0.34815645
       47.764151      -88.335908     -0.36450768
       47.763302      -88.336229     -0.35633230
       47.762453      -88.336550     -0.36450768
       47.761604      -88.336872     -0.36450768
       47.760755      -88.337194     -0.34815645
       47.759906      -88.337517     -0.36450768
       47.759057      -88.337839     -0.35633230
       47.758208      -88.338162     -0.35633230
       47.757359      -88.338484     -0.36450768
       47.756509      -88.338806     -0.34058142
       47.755661      -88.339128     -0.36510849
       47.754812      -88.339449     -0.35693264
       47.753962      -88.339771     -0.35693264
       47.753113      -88.340094     -0.35693264
       47.752264      -88.340417     -0.34058142
       47.751415      -88.340739     -0.35693264
       47.750566      -88.341062     -0.36510849
       47.749717      -88.341383     -0.35693264
       47.748868      -88.341704     -0.36510849
       47.748019      -88.342025     -0.34058142
       47.747170      -88.342349     -0.33054972
       47.746320      -88.342672     -0.33054972
       47.745471      -88.342995     -0.33054972
       47.744623      -88.343316     -0.34690094
       47.743774      -88.343638     -0.33054972
       47.742925      -88.343960     -0.33054972
       47.742076      -88.344284     -0.33872509
       47.741227      -88.344605     -0.33872509
       47.740378      -88.344926     -0.33054972
       47.739529      -88.345249     -0.34690094
       47.738680      -88.345571     -0.33872509
       47.737830      -88.345894     -0.32447386
       47.736980      -88.346215     -0.33264923
       47.736132      -88.346537     -0.33264923
       47.735282      -88.346858     -0.33264923
       47.734433      -88.347180     -0.33264923
       47.733584      -88.347502     -0.32447386
       47.732735      -88.347825     -0.34082508
       47.731885      -88.348147     -0.33264923
       47.731036      -88.348469     -0.34082508
       47.730187      -88.348791     -0.33264923
       47.729338      -88.349114     -0.36602020
       47.728489      -88.349436     -0.36602020
       47.727640      -88.349759     -0.37419605
       47.726789      -88.350081     -0.36602020
       47.725940      -88.350403     -0.35784483
       47.725091      -88.350725     -0.36602020
       47.724242      -88.351045     -0.37419605
       47.723393      -88.351367     -0.36602020
       47.722544      -88.351689     -0.35784483
       47.721694      -88.352011     -0.35784483
       47.720845      -88.352333     -0.36602020
       47.719996      -88.352655     -0.34328365
       47.719148      -88.352977     -0.33510828
       47.718299      -88.353299     -0.33510828
       47.717450      -88.353621     -0.33510828
       47.716601      -88.353943     -0.33510828
       47.715751      -88.354264     -0.33510828
       47.714902      -88.354587     -0.32295370
       47.714053      -88.354909     -0.32295370
       47.713204      -88.355231     -0.32295370
       47.712354      -88.355554     -0.33112907
       47.711505      -88.355876     -0.31991243
       47.710657      -88.356198     -0.30356073
       47.709808      -88.356520     -0.31991243
       47.708958      -88.356841     -0.31991243
       47.708109      -88.357163     -0.32808781
       47.707260      -88.357485     -0.31173658
       47.706411      -88.357807     -0.31991243
       47.705562      -88.358130     -0.32808781
       47.704713      -88.358451     -0.32808781
       47.703865      -88.358772     -0.31991243
       47.703016      -88.359094     -0.32808781
       47.702167      -88.359416     -0.32656765
       47.701317      -88.359739     -0.31839228
       47.700468      -88.360060     -0.31021643
       47.699619      -88.360382     -0.31839228
       47.698770      -88.360704     -0.31839228
       47.697920      -88.361027     -0.31021643
       47.697071      -88.361349     -0.31021643
       47.696222      -88.361669     -0.31021643
       47.695373      -88.361990     -0.31839228
       47.694524      -88.362312     -0.31021643
       47.693675      -88.362634     -0.31021643
       47.692826      -88.362956     -0.32295370
       47.691977      -88.363279     -0.31477785
       47.691127      -88.363600     -0.31477785
       47.690278      -88.363922     -0.31477785
       47.689429      -88.364244     -0.31477785
       47.688579      -88.364566     -0.33112907
       47.687730      -88.364888     -0.32295370
       47.686881      -88.365210     -0.31477785
       47.686032      -88.365532     -0.32295370
       47.685183      -88.365853     -0.31477785
       47.684333      -88.366174     -0.31781530
       47.683484      -88.366496     -0.32599115
       47.682635      -88.366818     -0.31781530
       47.681786      -88.367140     -0.32599115
       47.680937      -88.367461     -0.33206892
       47.680087      -88.367782     -0.33206892
       47.679238      -88.368104     -0.30754137
       47.678389      -88.368427     -0.32389307
       47.677539      -88.368749     -0.32389307
       47.676690      -88.369071     -0.32389307
       47.675840      -88.369393     -0.32389307
       47.674991      -88.369714     -0.33510828
       47.674141      -88.370036     -0.32693243
       47.673291      -88.370358     -0.31875658
       47.672442      -88.370680     -0.32693243
       47.671594      -88.371002     -0.31875658
       47.670744      -88.371322     -0.31058073
       47.669895      -88.371644     -0.31058073
       47.669046      -88.371966     -0.32693243
       47.668197      -88.372289     -0.31875658
       47.667348      -88.372610     -0.31875658
       47.666498      -88.372932     -0.32027102
       47.665649      -88.373255     -0.32027102
       47.664799      -88.373577     -0.32844687
       47.663950      -88.373897     -0.32027102
       47.663101      -88.374218     -0.32844687
       47.662252      -88.374540     -0.31209517
       47.661402      -88.374863     -0.32027102
       47.660553      -88.375185     -0.31209517
       47.659704      -88.375506     -0.31209517
       47.658855      -88.375829     -0.32027102
       47.658005      -88.376149     -0.31209517
       47.657156      -88.376470     -0.31571722
       47.656307      -88.376791     -0.30754137
       47.655458      -88.377113     -0.31571722
       47.654609      -88.377435     -0.31571722
       47.653759      -88.377757     -0.30754137
       47.652910      -88.378079     -0.30754137
       47.652061      -88.378400     -0.31571722
       47.651212      -88.378722     -0.31571722
       47.650363      -88.379044     -0.31571722
       47.649514      -88.379365     -0.30754137
       47.648665      -88.379687     -0.30298567
       47.647816      -88.380009     -0.30298567
       47.646966      -88.380331     -0.29480982
       47.646116      -88.380653     -0.30298567
       47.645266      -88.380974     -0.30298567
       47.644417      -88.381295     -0.30298567
       47.643568      -88.381617     -0.30298567
       47.642720      -88.381938     -0.30298567
       47.641871      -88.382259     -0.30298567
       47.641022      -88.382580     -0.30298567
       47.640172      -88.382901     -0.29480982
       47.639322      -88.383222     -0.31361437
       47.638473      -88.383544     -0.31361437
       47.637623      -88.383865     -0.30543852
       47.636773      -88.384186     -0.30543852
       47.635924      -88.384509     -0.30543852
       47.635075      -88.384831     -0.31361437
       47.634225      -88.385152     -0.31361437
       47.633376      -88.385472     -0.30543852
       47.632527      -88.385794     -0.30543852
       47.631678      -88.386115     -0.30543852
       47.630829      -88.386436     -0.31361437
       47.629980      -88.386757     -0.30450392
       47.629130      -88.387079     -0.32085562
       47.628280      -88.387400     -0.28815222
       47.627431      -88.387722     -0.30450392
       47.626582      -88.388044     -0.29632807
       47.625732      -88.388366     -0.29632807
       47.624882      -88.388687     -0.30450392
       47.624033      -88.389008     -0.30450392
       47.623184      -88.389329     -0.29632807
       47.622335      -88.389651     -0.29632807
       47.621485      -88.389973     -0.30391932
       47.620635      -88.390293     -0.30391932
       47.619786      -88.390613     -0.31209517
       47.618937      -88.390935     -0.29574347
       47.618087      -88.391257     -0.31209517
       47.617238      -88.391578     -0.30391932
       47.616388      -88.391900     -0.32027102
       47.615538      -88.392221     -0.30391932
       47.614689      -88.392542     -0.31209517
       47.613840      -88.392863     -0.29212046
       47.612991      -88.393184     -0.30847216
       47.612142      -88.393505     -0.30029631
       47.611293      -88.393826     -0.30029631
       47.610443      -88.394148     -0.30029631
       47.609593      -88.394469     -0.30029631
       47.608744      -88.394790     -0.30029631
       47.607894      -88.395111     -0.29212046
       47.607045      -88.395433     -0.30029631
       47.606195      -88.395755     -0.28394461
       47.605346      -88.396075     -0.28394461
       47.604498      -88.396395     -0.29212046
       47.603648      -88.396716     -0.28908682
       47.602799      -88.397036     -0.28908682
       47.601950      -88.397357     -0.28908682
       47.601100      -88.397678     -0.28908682
       47.600251      -88.398000     -0.28908682
       47.599402      -88.398321     -0.28908682
       47.598552      -88.398643     -0.29726267
       47.597703      -88.398964     -0.28908682
       47.596854      -88.399284     -0.28908682
       47.596004      -88.399605     -0.28908682
       47.595155      -88.399925     -0.28908682
       47.594306      -88.400247     -0.28756762
       47.593458      -88.400568     -0.28756762
       47.592607      -88.400889     -0.27939177
       47.591758      -88.401209     -0.27939177
       47.590909      -88.401530     -0.29574347
       47.590060      -88.401851     -0.28756762
       47.589211      -88.402172     -0.28756762
       47.588361      -88.402493     -0.27939177
       47.587511      -88.402813     -0.27939177
       47.586662      -88.403133     -0.28756762
       47.585813      -88.403454     -0.28756762
       47.584963      -88.403775     -0.27331877
       47.584114      -88.404095     -0.28149462
       47.583265      -88.404416     -0.28149462
       47.582415      -88.404738     -0.27331877
       47.581566      -88.405059     -0.28149462
       47.580715      -88.405380     -0.26876020
       47.579865      -88.405701     -0.26876020
       47.579016      -88.406021     -0.27693605
       47.578166      -88.406341     -0.27693605
       47.577317      -88.406662     -0.26876020
       47.576468      -88.406983     -0.26572275
       47.575617      -88.407303     -0.27389860
       47.574768      -88.407623     -0.25754738
       47.573919      -88.407944     -0.27389860
       47.573070      -88.408265     -0.26572275
       47.572221      -88.408585     -0.26572275
       47.571371      -88.408906     -0.24937153
       47.570521      -88.409227     -0.25754738
       47.569672      -88.409547     -0.25754738
       47.568822      -88.409867     -0.25754738
       47.567973      -88.410187     -0.26572275
       47.567123      -88.410507     -0.28149462
       47.566274      -88.410828     -0.28149462
       47.565425      -88.411148     -0.26514339
       47.564576      -88.411469     -0.25696754
       47.563726      -88.411790     -0.27331877
       47.562876      -88.412110     -0.25696754
       47.562027      -88.412430     -0.26514339
       47.561177      -88.412750     -0.27331877
       47.560328      -88.413071     -0.26514339
       47.559479      -88.413392     -0.26514339
       47.558630      -88.413712     -0.27541876
       47.557782      -88.414032     -0.25089169
       47.556932      -88.414352     -0.25906754
       47.556082      -88.414672     -0.25906754
       47.555232      -88.414993     -0.25906754
       47.554382      -88.415315     -0.25906754
       47.553533      -88.415634     -0.25906754
       47.552685      -88.415954     -0.26724291
       47.551836      -88.416274     -0.25906754
       47.550986      -88.416595     -0.25089169
       47.550136      -88.416915     -0.25089169
       47.549287      -88.417236     -0.24423313
       47.548437      -88.417556     -0.25240898
       47.547588      -88.417876     -0.25240898
       47.546739      -88.418196     -0.24727345
       47.545889      -88.418515     -0.25544930
       47.545040      -88.418835     -0.25544930
       47.544190      -88.419156     -0.23909760
       47.543340      -88.419476     -0.24727345
       47.542491      -88.419797     -0.25544930
       47.541642      -88.420117     -0.24727345
       47.540793      -88.420437     -0.24727345
       47.539943      -88.420756     -0.24879169
       47.539095      -88.421077     -0.24879169
       47.538245      -88.421397     -0.25696754
       47.537395      -88.421718     -0.24879169
       47.536546      -88.422038     -0.24879169
       47.535696      -88.422358     -0.24061584
       47.534847      -88.422678     -0.24061584
       47.533998      -88.422998     -0.24879169
       47.533148      -88.423317     -0.24879169
       47.532298      -88.423638     -0.25696754
       47.531449      -88.423959     -0.26152611
       47.530599      -88.424278     -0.26970196
       47.529750      -88.424598     -0.25335026
       47.528901      -88.424918     -0.26152611
       47.528052      -88.425238     -0.25335026
       47.527202      -88.425559     -0.24517441
       47.526352      -88.425879     -0.25335026
       47.525502      -88.426198     -0.25335026
       47.524653      -88.426519     -0.24517441
       47.523804      -88.426839     -0.25335026
       47.522955      -88.427158     -0.25335026
       47.522105      -88.427477     -0.24306583
       47.521256      -88.427797     -0.25941753
       47.520406      -88.428117     -0.25124168
       47.519556      -88.428437     -0.25941753
       47.518707      -88.428756     -0.25124168
       47.517857      -88.429076     -0.25124168
       47.517008      -88.429397     -0.25124168
       47.516159      -88.429718     -0.25941753
       47.515309      -88.430037     -0.25124168
       47.514459      -88.430357     -0.25124168
       47.513610      -88.430677     -0.24972534
       47.512761      -88.430996     -0.24154949
       47.511912      -88.431316     -0.24972534
       47.511062      -88.431636     -0.24972534
       47.510213      -88.431955     -0.24154949
       47.509363      -88.432276     -0.24972534
       47.508514      -88.432597     -0.23337364
       47.507665      -88.432917     -0.23337364
       47.506816      -88.433236     -0.24154949
       47.505966      -88.433556     -0.23337364
       47.505117      -88.433875     -0.22519779
       47.504267      -88.434194     -0.23243999
       47.503417      -88.434515     -0.22426414
       47.502568      -88.434835     -0.24879169
       47.501719      -88.435155     -0.24061584
       47.500870      -88.435475     -0.22426414
       47.500021      -88.435794     -0.23243999
       47.499171      -88.436113     -0.23243999
       47.498321      -88.436433     -0.22426414
       47.497472      -88.436752     -0.22426414
       47.496623      -88.437073     -0.23243999
       47.495773      -88.437394     -0.23243999
       47.494924      -88.437712     -0.21666813
       47.494074      -88.438032     -0.20849228
       47.493225      -88.438352     -0.21666813
       47.492374      -88.438673     -0.21666813
       47.491525      -88.438992     -0.22484398
       47.490677      -88.439312     -0.22484398
       47.489828      -88.439631     -0.21666813
       47.488978      -88.439950     -0.20849228
       47.488129      -88.440271     -0.21666813
       47.487280      -88.440592     -0.20849228
       47.486430      -88.440911     -0.21210670
       47.485580      -88.441231     -0.21210670
       47.484730      -88.441550     -0.20393085
       47.483881      -88.441870     -0.20393085
       47.483031      -88.442190     -0.22028255
       47.482182      -88.442510     -0.21210670
       47.481332      -88.442829     -0.21210670
       47.480482      -88.443148     -0.21210670
       47.479633      -88.443468     -0.22274590
       47.478784      -88.443787     -0.21457005
       47.477935      -88.444107     -0.23092175
       47.477086      -88.444428     -0.22122765
       47.476236      -88.444747     -0.23757935
       47.475386      -88.445066     -0.22940350
       47.474536      -88.445386     -0.23757935
       47.473687      -88.445706     -0.22940350
       47.472837      -88.446026     -0.22940350
       47.471988      -88.446346     -0.22122765
       47.471139      -88.446665     -0.21305180
       47.470289      -88.446984     -0.22940350
       47.469440      -88.447303     -0.22122765
       47.468591      -88.447623     -0.21514606
       47.467740      -88.447944     -0.23149776
       47.466891      -88.448263     -0.21514606
       47.466042      -88.448582     -0.21514606
       47.465193      -88.448902     -0.21514606
       47.464344      -88.449222     -0.21514606
       47.463495      -88.449541     -0.22332191
       47.462645      -88.449859     -0.19879436
       47.461795      -88.450180     -0.21514606
       47.460946      -88.450500     -0.19879436
