       48.467021      -88.065990     -0.38740778       0
       48.444108      -88.074887     -0.41078901       1
       48.421194      -88.083781     -0.37674856       2
       48.398279      -88.092666     -0.38588572       3
       48.376213      -88.101215     -0.40528345       4
       48.353299      -88.110086     -0.41078901       5
       48.330383      -88.118948     -0.39710760       6
       48.307466      -88.127804     -0.38436460       7
       48.284549      -88.136650     -0.37425089       8
       48.261630      -88.145490     -0.40927076       9
       48.239563      -88.153997     -0.40375948      10
       48.216645      -88.162823     -0.37882853      11
       48.193725      -88.171644     -0.39862776      12
       48.170807      -88.180457     -0.42219877      13
       48.147884      -88.189273     -0.38456392      14
       48.124970      -88.198083     -0.38508081      15
       48.102900      -88.206566     -0.38915586      16
       48.079983      -88.215366     -0.37945032      17
       48.057065      -88.224159     -0.38709974      18
       48.034145      -88.232941     -0.39462519      19
       48.011227      -88.241714     -0.38187742      20
       47.988305      -88.250481     -0.34667587      21
       47.966230      -88.258915     -0.33947468      22
       47.943308      -88.267671     -0.33378601      23
       47.920384      -88.276424     -0.34443951      24
       47.897461      -88.285175     -0.33778286      25
       47.874540      -88.293920     -0.33778286      26
       47.851613      -88.302660     -0.33720684      27
       47.829534      -88.311065     -0.31230402      28
       47.806608      -88.319785     -0.33264923      29
       47.783681      -88.328493     -0.33720684      30
       47.760755      -88.337194     -0.34815645      31
       47.737830      -88.345894     -0.32447386      32
       47.714902      -88.354587     -0.32295370      33
       47.692826      -88.362956     -0.32295370      34
       47.669895      -88.371644     -0.31058073      35
       47.646966      -88.380331     -0.29480982      36
       47.624033      -88.389008     -0.30450392      37
       47.601100      -88.397678     -0.28908682      38
       47.578166      -88.406341     -0.27693605      39
       47.556082      -88.414672     -0.25906754      40
       47.533148      -88.423317     -0.24879169      41
       47.510213      -88.431955     -0.24154949      42
       47.487280      -88.440592     -0.20849228      43
       47.467740      -88.447944     -0.23149776      44
